GIS
1
0.0
3
UNKNOWN
ENTAILMENT
CONTRADICTION
2
3
33 0 1 2
36
BagOfWordsScoring_6
BagOfWordsScoring_4
BagOfWordsScoring_5
BagOfLemmasScoring_0
BagOfLemmasScoring_1
BagOfDepsPosScoring_9
BagOfDepsScoring_4
BagOfDepsPosScoring_5
BagOfDepsScoring_3
BagOfDepsPosScoring_6
BagOfDepsScoring_6
BagOfDepsPosScoring_7
BagOfDepsScoring_5
BagOfDepsPosScoring_8
BagOfDepsScoring_8
BagOfDepsPosScoring_1
BagOfDepsScoring_7
BagOfDepsPosScoring_2
BagOfLemmasScoring_2
BagOfDepsPosScoring_3
BagOfDepsScoring_9
BagOfDepsPosScoring_4
BagOfDepsPosScoring_0
BagOfDepsScoring_10
BagOfDepsScoring_11
BagOfLexesScoringEN_1
BagOfDepsPosScoring_11
BagOfDepsPosScoring_10
BagOfLexesScoringEN_0
BagOfWordsScoring_0
BagOfWordsScoring_1
BagOfWordsScoring_2
BagOfWordsScoring_3
BagOfDepsScoring_0
BagOfDepsScoring_2
BagOfDepsScoring_1
-0.16449313699201404
-0.7840267836946835
3.081736387069349
-0.40425398554330905
0.6763870262927757
-1.4256138389731108
-1.0191122736778793
0.41416776089011764
1.582952743121696
-0.03620087016800876
-0.13374564826278365
0.9279057028550656
1.3065970200793922
-0.881845484206029
-0.020950936648062968
-0.02147654579058828
0.6452169176373617
-2.4612679891701488
0.16930012829006547
-0.7338830247764058
2.096755755172828
0.8252555393583371
-0.03335726271506988
-2.4429210421098593
-0.19094118322463088
0.6097227405360042
-1.931522586191262
-0.18908356657618872
-0.8643735499472037
5.052390614743754
1.293888988649756
-0.6043741433379796
-1.5378268946450704
-0.7942349002535171
0.5062451561147172
0.5308326566517239
1.108207487141874
-0.570430615841485
-0.6809068962632953
-1.0379285085125804
0.4385615593977409
1.5263484765048407
2.300953406903346
-1.2278074017029825
-1.1417020076248123
-1.5447696463146214
0.9688140656198002
0.7188674559673602
0.832115834230786
-0.4463238162331587
-0.9050317494785242
-0.27201979977847635
0.36850576917152456
-0.4173687347169593
-1.189951764620977
1.2105642802214018
-1.8785479061550139
0.37957036182493636
-1.0370481596062286
2.866317834361756
1.5888493878812466
-1.7157804543637405
2.91542051774427
-0.9622711344569287
0.33512596633703157
1.6233608770897061
0.369697409314391
-0.07358368545407261
-0.7320579799691971
-3.806576315260833
3.1806033093991415
-3.953993326999499
-1.1487502411961767
0.7671581168808227
0.011209545852085208
0.16538083549095392
0.3229417817501519
-1.472640730070806
0.7908505543504807
-0.9144807661422802
0.7680139973089598
0.204641446501037
-0.1776883941289389
0.19056080296125807
0.12092518792619572
0.2005357066285259
-1.1073282330322423
-0.11463406449227012
0.28471069854155756
-0.5409530025911761
-0.8468320381432463
1.217332849046774
-1.8619714110896886
-0.6301365253298294
-0.2643191263854451
3.514501741109383
1.654345974927681
-0.5630817397090829
-3.0362394505257275
