GIS
1
0.0
2
ENTAILMENT
NONENTAILMENT
1
36 0 1
36
BagOfLemmasScoring_0
BagOfLemmasScoring_1
BagOfDepsPosScoring_9
BagOfDepsScoring_4
BagOfDepsPosScoring_5
BagOfDepsScoring_3
BagOfDepsPosScoring_6
BagOfDepsScoring_6
BagOfDepsPosScoring_7
BagOfDepsScoring_5
BagOfDepsPosScoring_8
BagOfDepsScoring_8
BagOfDepsPosScoring_1
BagOfDepsScoring_7
BagOfDepsPosScoring_2
BagOfLemmasScoring_2
BagOfDepsPosScoring_3
BagOfDepsScoring_9
BagOfDepsPosScoring_4
BagOfDepsPosScoring_0
BagOfDepsScoring_10
BagOfDepsScoring_11
BagOfLexesScoringEN_1
BagOfDepsPosScoring_11
BagOfDepsPosScoring_10
BagOfLexesScoringEN_0
BagOfWordsScoring_0
BagOfWordsScoring_1
BagOfWordsScoring_6
BagOfWordsScoring_4
BagOfWordsScoring_5
BagOfWordsScoring_2
BagOfWordsScoring_3
BagOfDepsScoring_0
BagOfDepsScoring_2
BagOfDepsScoring_1
0.055938533621437796
-0.07074908787070831
0.3140843277423877
-0.39904437742810867
-0.010729415999390406
0.03879594650449251
-1.3613277819524015
2.0688312286178485
-1.3562202540042918
2.357026980779357
-0.2442683758555442
0.4102522712162239
-0.08909472054606145
0.12205971775401951
-0.2719014052532856
0.37951529012453733
0.004564606748573979
0.0023059091706670396
-1.1969322576422565
2.1820357806300232
0.4042643667497681
-0.6329409721108317
-0.10890635004264972
0.19775250986219106
-0.08468789035650241
0.15480586472715793
-0.030210770578578874
0.04515762363137079
-1.4304044786435723
2.9670329745938684
0.7844931412837031
-1.1831793410632827
0.6210002114320369
-0.9819882693118535
0.5616617507458832
-1.0998325652112426
-0.5505686854656617
0.8210983110930381
-0.50143185668065
0.9443440263747495
0.07887249739426219
-0.1341778553230876
0.6903346983023052
-1.5605264759431643
0.4737327495080066
-0.6259293955144731
0.16252120451606383
-0.3131296188526684
0.6666073992863779
-1.1096704659355823
0.7188387268253482
-0.9260997941567745
0.5501497052458921
-0.754770514012189
0.1945172656391004
-0.25446342562513713
-1.3159037704527994
1.5487614442086473
-1.5559393136226713
1.28890848624854
-1.3737922959294802
1.6185259764604598
0.5253564131380049
-0.8197102706464845
-1.5655353597358945
1.91082241603135
0.28243182893403557
-0.5343677067070438
1.2270335537242167
-2.7902603979561116
0.18453416145758358
-0.32868009647754526
